svm_type c_svc
kernel_type linear
nr_class 7
total_sv 42
rho 0.28826180678032548 0.28776797369501983 1.0098052318660478 -2.1391113371972561 -0.57177449338444086 1.1118736751093616 -0.5 1.0012650111071955 -0.76189698251009053 -0.88865392648287389 1.1768236388234545 1.3126013532584606 -1.5263157894736841 -1.9469095856605951 0.23828378726673841 -2.3332661670281163 -1.4985581203988376 -1.1258737230828331 2.4285714285714279 2.6358457623106064 2.8917290854450912
label 1 4 2 7 6 5 3
probA -2.6548693931436231 -2.8917426990817439 -2.9511333145608858 -2.5203877505035357 -2.450037125207837 -2.9205547068457349 -2.8504642067743169 -2.5299433965153404 -2.4174278107468066 -2.1522005302542735 -2.3327266920989813 -2.6812420392621705 -2.6208341312802625 -2.3331189031874824 -2.5522631611971871 -1.4677706095517056 -2.0717962722780388 -1.8238068217035754 -1.9935110298747742 -1.1054374834622989 -0.79173021713909819
probB -0.20622740318021082 -0.11148516990273555 -0.44292152881191726 -0.57189747067105279 -0.75659841734939448 -0.27084081136164084 0.21242992849200765 -0.024289127835915827 -0.22119539543631286 -0.48524328754300616 -0.0076293954528934022 -0.097048556586066273 -0.42371707399622349 -0.57251911825325019 -0.26825822090249174 -0.28260363925675958 -0.32319539982634349 -0.11246127125974588 -0.19475968939341284 -0.2032188194833924 0.25918935074628563
nr_sv 9 4 7 8 6 4 4
SV
0 0 0.1991959804811286 0.1531314476397545 0.00037949901296898487 2.7755575615628914e-16 1:1 4:1 8:1 9:1 10:1 13:4 15:1 
0 0 0 0 7.7144084979496874e-05 0 4:1 6:1 7:1 8:1 9:1 10:1 12:1 14:1 16:1 
0 0 8.0079109196658121e-05 0 0 0 1:1 4:1 8:1 9:1 10:1 13:4 14:1 
0 0 0 0 0.012778020185226941 0 1:1 4:1 7:1 8:1 9:1 10:1 13:4 14:1 
0 0 0 0 0.30758964203320571 0 1:1 4:1 7:1 8:1 9:1 10:1 13:4 14:1 
0.033905189460745069 0.37278591624774537 0.27678828445576464 0.095717788624525985 0.32147219124472992 0.32060252378305359 1:1 3:1 4:1 6:1 7:1 9:1 10:1 13:4 14:1 16:1 
0.64419859975415494 0.30506353694394345 0.018712241301557662 0 0.035675533038723124 0.25965173770319816 4:1 6:1 7:1 8:1 9:1 10:1 12:1 14:1 16:1 
0 0 0 0 0 0.097109810321734311 1:1 4:1 8:1 9:1 10:1 13:2 14:1 
0 0 0.028298579559292825 0 0.00064040458438156984 0.29790057025152705 1:1 4:1 8:1 9:1 10:1 13:4 14:1 
-0 0 0.31029238517457691 9.6098404766483135e-05 0.10923141186299112 0.74234886487379537 3:1 6:1 7:1 8:1 9:1 12:1 14:1 
-0 0 0 0.047520661157024746 0.0018796992481199815 0.018127435238400831 3:1 6:1 8:1 9:1 12:1 14:1 
-0 0 0.15199341098757357 0 0 0.3190530767281613 3:1 6:1 7:1 8:1 9:1 11:1 12:1 14:1 16:1 
-0.6781037892149 0.25 0 4.6837533851373792e-17 0 0 3:1 6:1 7:1 8:1 9:1 12:1 14:1 16:1 
-0 -0 0 0 0.002111860906656647 0 2:1 3:1 5:1 6:1 9:1 10:1 13:2 14:1 
-0 -0 0.44392737184077052 0 0.10525210843694691 0.76095927172774491 2:1 3:1 7:1 9:1 10:1 13:2 14:1 
-0 -0 0.13197632961787956 0 0 0.85596180335435956 2:1 3:1 9:1 10:1 13:2 14:1 16:1 
-0.67784945319168877 -0.25 0 0 0.10568647717245096 0 2:1 3:1 6:1 7:1 9:1 10:1 13:2 14:1 16:1 
-0 -0 0 0 0 0.0012211053547034612 2:1 3:1 7:1 9:1 10:1 13:2 14:1 16:1 
-0 -0 0 0 0.10273587018021627 0 2:1 3:1 5:1 6:1 7:1 9:1 10:1 13:2 14:1 
-0 -0 0.13182753345786782 0.10526315789473684 0 0.00061055267735213303 2:1 3:1 5:1 9:1 10:1 13:2 14:1 
-0 -0.15111024958757341 -0.13117492674575582 0 0 0.016307318056467856 3:1 7:1 
-0 -0.0070073034751362614 -0 0 0 0 3:1 6:1 7:1 13:4 
-0 -0 -0 0 0.40632546993640589 0 3:1 6:1 7:1 13:6 
-0.13143258182340289 -0 -0 0.66649957457053199 0.019003636854982429 0.14440291382921763 3:1 6:1 7:1 13:8 16:1 
-0.12443173194363558 -0.001280675219911064 -0.1815314316466651 0.66649480471248101 0.073322500481779546 0.30128195305727135 7:1 10:1 11:1 13:8 14:1 
-0 -0.30288756787952975 -0 0 0 0 3:1 6:1 7:1 11:1 
-0.0052492217595310467 -0 -0 0 0 0.019931168253450888 3:1 10:1 
-0.26196162938037065 -0 -0.39502487652409712 0.49988701531655938 0.29775721662957411 0.56296819181459379 3:1 10:1 
-0 -0 -0 -0.066551692274757657 0 0 3:1 10:1 13:6 
-0 -0 -0.10526315789473684 -0 0 0 3:1 5:1 10:1 13:6 
-0.076523188421160016 -0 -0 -0 0 0 1:1 3:1 5:1 10:1 11:1 13:6 15:1 
-0 -9.6098404766483135e-05 -0 -0.66656591720884184 0 0.060051406926406981 3:1 5:1 7:1 10:1 13:6 
-0.04787021690430833 -0 -0 -0 0 0 1:1 3:1 5:1 10:1 13:6 
-0.12445583093881213 -0.047520661157024795 -0 -1.0997637851159734 0.2857142857142857 0.24295948966707892 3:1 10:1 13:6 
-0 -0 -0 -0.35181403507761994 -0 0 3:1 6:1 7:1 8:1 9:1 10:1 13:4 
-0 -0 -0 -0.073375916237166577 -0 0.054126055880442059 3:1 6:1 7:1 8:1 9:1 10:1 11:1 13:4 
-0.67791273287905529 -0.11017126148705114 -0.31451320187519122 -0.07337591623716723 -0 2.053843404808315 3:1 6:1 7:1 8:1 9:1 10:1 13:4 14:1 
-0.00069970130516052234 -0.00093984962405996644 -0.0012731148210795573 -0.29784295635078811 -0.2857142857142857 0 3:1 6:1 8:1 9:1 10:1 13:4 
-0.30831578885886068 -0.61958670582733721 -0 -0.16818209297885331 -0 -0.10810477582845987 6:1 7:1 8:1 9:1 11:1 14:1 
-0 -0.44216552400774828 -0.76175138670583453 -0 -0 -0 3:1 7:1 8:1 9:1 10:1 14:1 
-0.43188295795099124 -0.017777147005271804 -0.85700134640832548 -0.59056174538330908 -0.18193462043908423 -0 3:1 9:1 10:1 13:4 14:1 16:1 
-0.2350658952496614 -0 -0 -0.28614770664883948 -0.12107627615440165 -1.999864684860297 3:1 7:1 8:1 9:1 10:1 13:4 14:1 
